digraph Tree {
node [shape=box, style="filled, rounded", color="black", fontname=helvetica] ;
edge [fontname=helvetica] ;
0 [label="advdcage <= 90.566\ngini = 0.611\nsamples = 6\nvalue = [1, 3, 2]\nclass = Gardien", fillcolor="#39e58140"] ;
1 [label="advdball <= 7.719\ngini = 0.625\nsamples = 4\nvalue = [1, 1, 2]\nclass = Milieu", fillcolor="#8139e555"] ;
0 -> 1 [labeldistance=2.5, labelangle=45, headlabel="True"] ;
2 [label="gini = 0.5\nsamples = 2\nvalue = [1, 1, 0]\nclass = Fonceur", fillcolor="#e5813900"] ;
1 -> 2 ;
3 [label="gini = 0.0\nsamples = 2\nvalue = [0, 0, 2]\nclass = Milieu", fillcolor="#8139e5ff"] ;
1 -> 3 ;
4 [label="gini = 0.0\nsamples = 2\nvalue = [0, 2, 0]\nclass = Gardien", fillcolor="#39e581ff"] ;
0 -> 4 [labeldistance=2.5, labelangle=-45, headlabel="False"] ;
}